Language model created by QuickLM on Sun Nov 10 07:40:13 EST 2019
Copyright (c) 1996-2010 Carnegie Mellon University and Alexander I. Rudnicky

The model is in standard ARPA format, designed by Doug Paul while he was at MITRE.

The code that was used to produce this language model is available in Open Source.
Please visit http://www.speech.cs.cmu.edu/tools/ for more information

The (fixed) discount mass is 0.5. The backoffs are computed using the ratio method.
This model based on a corpus of 50 sentences and 177 words

\data\
ngram 1=177
ngram 2=234
ngram 3=197

\1-grams:
-2.7810 1 -0.3003
-2.7810 10 -0.3003
-2.7810 100 -0.2635
-2.7810 11 -0.3003
-2.7810 12 -0.3003
-2.7810 13 -0.3003
-2.7810 14 -0.3003
-2.7810 15 -0.2635
-2.7810 16 -0.3003
-2.7810 17 -0.3003
-2.7810 18 -0.3003
-2.7810 19 -0.3003
-2.7810 2 -0.3003
-2.7810 20 -0.3003
-2.7810 21 -0.3003
-2.7810 22 -0.3003
-2.7810 23 -0.3003
-2.7810 24 -0.3003
-2.7810 25 -0.3003
-2.7810 26 -0.3003
-2.7810 27 -0.2635
-2.7810 28 -0.3003
-2.7810 29 -0.3003
-2.7810 3 -0.3003
-2.7810 30 -0.3003
-2.7810 31 -0.3003
-2.7810 32 -0.3003
-2.7810 33 -0.3003
-2.7810 34 -0.3003
-2.7810 35 -0.3003
-2.7810 36 -0.3003
-2.7810 37 -0.3003
-2.7810 38 -0.3003
-2.7810 39 -0.2635
-2.7810 4 -0.3003
-2.7810 40 -0.3003
-2.7810 41 -0.3003
-2.7810 42 -0.3003
-2.7810 43 -0.3003
-2.7810 44 -0.3003
-2.7810 45 -0.3003
-2.7810 46 -0.3003
-2.7810 47 -0.3003
-2.7810 48 -0.3003
-2.7810 49 -0.3003
-2.7810 5 -0.3003
-2.7810 50 -0.3003
-2.7810 51 -0.2635
-2.7810 52 -0.3003
-2.7810 53 -0.3003
-2.7810 54 -0.3003
-2.7810 55 -0.3003
-2.7810 56 -0.3003
-2.7810 57 -0.3003
-2.7810 58 -0.3003
-2.7810 59 -0.3003
-2.7810 6 -0.3003
-2.7810 60 -0.3003
-2.7810 61 -0.3003
-2.7810 62 -0.3003
-2.7810 63 -0.2635
-2.7810 64 -0.3003
-2.7810 65 -0.3003
-2.7810 66 -0.3003
-2.7810 67 -0.3003
-2.7810 68 -0.3003
-2.7810 69 -0.3003
-2.7810 7 -0.3003
-2.7810 70 -0.3003
-2.7810 71 -0.3003
-2.7810 72 -0.3003
-2.7810 73 -0.3003
-2.7810 74 -0.3003
-2.7810 75 -0.2635
-2.7810 76 -0.3003
-2.7810 77 -0.3003
-2.7810 78 -0.3003
-2.7810 79 -0.3003
-2.7810 8 -0.3003
-2.7810 80 -0.3003
-2.7810 81 -0.3003
-2.7810 82 -0.3003
-2.7810 83 -0.3003
-2.7810 84 -0.3003
-2.7810 85 -0.3003
-2.7810 86 -0.3003
-2.7810 87 -0.2635
-2.7810 88 -0.3003
-2.7810 89 -0.3003
-2.7810 9 -0.3003
-2.7810 90 -0.3003
-2.7810 91 -0.3003
-2.7810 92 -0.3003
-2.7810 93 -0.3003
-2.7810 94 -0.3003
-2.7810 95 -0.3003
-2.7810 96 -0.3003
-2.7810 97 -0.3003
-2.7810 98 -0.3003
-2.7810 99 -0.2635
-1.0821 </s> -0.3010
-1.0821 <s> -0.2619
-2.0821 A -0.2967
-2.7810 ALEXA -0.2635
-2.7810 ASK -0.2960
-2.7810 BEDROOM -0.2635
-2.7810 BETWEEN -0.2635
-2.7810 BLUE -0.3003
-2.7810 BOCHUM -0.2635
-2.7810 BRABENDER -0.2635
-2.7810 BRIGHTNESS -0.3003
-2.7810 CHANGE -0.2989
-2.7810 COLOGNE -0.2635
-2.7810 CORTANA -0.2635
-2.7810 DISTANCE -0.3003
-2.7810 DORTMUND -0.2635
-2.7810 ESSEN -0.2635
-2.4800 FACT -0.2635
-2.7810 FACTS -0.2635
-2.7810 FAR -0.3003
-2.7810 FAVORITE -0.3003
-2.7810 FRIDAY -0.2635
-2.7810 FROM -0.2635
-2.4800 GIVE -0.2960
-2.7810 GOOD -0.3003
-2.7810 GREEN -0.3003
-2.7810 GREETINGS -0.2635
-2.7810 HELLO -0.3003
-2.4800 HOW -0.2974
-2.7810 IN -0.2635
-2.1790 IS -0.2960
-2.7810 JARVIS -0.2635
-2.7810 JOKE -0.2635
-2.7810 JULIA -0.2635
-2.7810 KEVIN -0.2635
-2.7810 KITCHEN -0.2635
-2.7810 KOCH -0.2635
-2.7810 LAMP -0.3003
-2.7810 LIGHTBLUE -0.2635
-2.7810 LIVINGROOM -0.2635
-2.7810 LONDON -0.2635
-1.9359 ME -0.2945
-2.7810 MORNING -0.2635
-2.7810 MY -0.2989
-2.3039 NAME -0.2967
-2.7810 NOW -0.2635
-2.7810 OFF -0.3003
-2.7810 ON -0.3003
-2.7810 PETER -0.2635
-2.7810 PLAY -0.2989
-2.7810 POKEMON -0.2635
-2.7810 PURPLE -0.3003
-2.7810 QUESTION -0.2635
-2.7810 QUOTE -0.2974
-2.7810 RANDOM -0.2996
-2.7810 RED -0.3003
-2.7810 RENAME -0.3003
-2.7810 RESUME -0.2989
-2.7810 SADOKE. -0.2635
-2.7810 SIRI -0.2635
-2.7810 SOME -0.3003
-2.7810 SOMETHING -0.2635
-2.3039 SONG -0.2635
-2.7810 STOP -0.2989
-2.7810 STUPID -0.2635
-2.1790 TELL -0.2960
-2.7810 TEMPERATURE -0.3003
-2.4800 THE -0.2996
-2.4800 TO -0.2635
-2.7810 TOILET -0.2635
-2.7810 TURN -0.3003
-2.7810 VOLUMN -0.2635
-2.7810 WEATHER -0.3003
-2.7810 WHAT -0.2981
-2.7810 WHITE -0.3003
-2.3039 YOUR -0.2981
-2.7810 YOURSELF -0.2996

\2-grams:
-0.3010 1 2 0.0000
-0.3010 10 11 0.0000
-0.3010 100 </s> -0.3010
-0.3010 11 12 0.0000
-0.3010 12 13 0.0000
-0.3010 13 14 0.0000
-0.3010 14 15 0.0000
-0.3010 15 </s> -0.3010
-0.3010 16 17 0.0000
-0.3010 17 18 0.0000
-0.3010 18 19 0.0000
-0.3010 19 20 0.0000
-0.3010 2 3 0.0000
-0.3010 20 21 0.0000
-0.3010 21 22 0.0000
-0.3010 22 23 0.0000
-0.3010 23 24 0.0000
-0.3010 24 25 0.0000
-0.3010 25 26 0.0000
-0.3010 26 27 0.0000
-0.3010 27 </s> -0.3010
-0.3010 28 29 0.0000
-0.3010 29 30 0.0000
-0.3010 3 4 0.0000
-0.3010 30 31 0.0000
-0.3010 31 32 0.0000
-0.3010 32 33 0.0000
-0.3010 33 34 0.0000
-0.3010 34 35 0.0000
-0.3010 35 36 0.0000
-0.3010 36 37 0.0000
-0.3010 37 38 0.0000
-0.3010 38 39 0.0000
-0.3010 39 </s> -0.3010
-0.3010 4 5 0.0000
-0.3010 40 41 0.0000
-0.3010 41 42 0.0000
-0.3010 42 43 0.0000
-0.3010 43 44 0.0000
-0.3010 44 45 0.0000
-0.3010 45 46 0.0000
-0.3010 46 47 0.0000
-0.3010 47 48 0.0000
-0.3010 48 49 0.0000
-0.3010 49 50 0.0000
-0.3010 5 6 0.0000
-0.3010 50 51 0.0000
-0.3010 51 </s> -0.3010
-0.3010 52 53 0.0000
-0.3010 53 54 0.0000
-0.3010 54 55 0.0000
-0.3010 55 56 0.0000
-0.3010 56 57 0.0000
-0.3010 57 58 0.0000
-0.3010 58 59 0.0000
-0.3010 59 60 0.0000
-0.3010 6 7 0.0000
-0.3010 60 61 0.0000
-0.3010 61 62 0.0000
-0.3010 62 63 0.0000
-0.3010 63 </s> -0.3010
-0.3010 64 65 0.0000
-0.3010 65 66 0.0000
-0.3010 66 67 0.0000
-0.3010 67 68 0.0000
-0.3010 68 69 0.0000
-0.3010 69 70 0.0000
-0.3010 7 8 0.0000
-0.3010 70 71 0.0000
-0.3010 71 72 0.0000
-0.3010 72 73 0.0000
-0.3010 73 74 0.0000
-0.3010 74 75 0.0000
-0.3010 75 </s> -0.3010
-0.3010 76 77 0.0000
-0.3010 77 78 0.0000
-0.3010 78 79 0.0000
-0.3010 79 80 0.0000
-0.3010 8 9 0.0000
-0.3010 80 81 0.0000
-0.3010 81 82 0.0000
-0.3010 82 83 0.0000
-0.3010 83 84 0.0000
-0.3010 84 85 0.0000
-0.3010 85 86 0.0000
-0.3010 86 87 0.0000
-0.3010 87 </s> -0.3010
-0.3010 88 89 0.0000
-0.3010 89 90 0.0000
-0.3010 9 10 0.0000
-0.3010 90 91 0.0000
-0.3010 91 92 0.0000
-0.3010 92 93 0.0000
-0.3010 93 94 0.0000
-0.3010 94 95 0.0000
-0.3010 95 96 0.0000
-0.3010 96 97 0.0000
-0.3010 97 98 0.0000
-0.3010 98 99 0.0000
-0.3010 99 </s> -0.3010
-2.0000 <s> 1 0.0000
-2.0000 <s> 100 0.0000
-2.0000 <s> 16 0.0000
-2.0000 <s> 28 0.0000
-2.0000 <s> 40 0.0000
-2.0000 <s> 52 0.0000
-2.0000 <s> 64 0.0000
-2.0000 <s> 76 0.0000
-2.0000 <s> 88 0.0000
-2.0000 <s> ALEXA 0.0000
-2.0000 <s> ASK 0.0000
-2.0000 <s> BEDROOM 0.0000
-2.0000 <s> BOCHUM 0.0000
-2.0000 <s> BRABENDER 0.0000
-2.0000 <s> CHANGE 0.0000
-2.0000 <s> COLOGNE 0.0000
-2.0000 <s> CORTANA 0.0000
-2.0000 <s> DORTMUND 0.0000
-2.0000 <s> ESSEN 0.0000
-2.0000 <s> FRIDAY 0.0000
-1.6990 <s> GIVE 0.0000
-2.0000 <s> GOOD 0.0000
-2.0000 <s> GREETINGS 0.0000
-2.0000 <s> HELLO 0.0000
-1.6990 <s> HOW 0.0000
-2.0000 <s> JARVIS 0.0000
-2.0000 <s> JULIA 0.0000
-2.0000 <s> KEVIN 0.0000
-2.0000 <s> KITCHEN 0.0000
-2.0000 <s> KOCH 0.0000
-2.0000 <s> LIVINGROOM 0.0000
-2.0000 <s> LONDON 0.0000
-2.0000 <s> PETER 0.0000
-2.0000 <s> PLAY 0.0000
-2.0000 <s> QUOTE 0.0000
-2.0000 <s> RENAME 0.0000
-2.0000 <s> RESUME 0.0000
-2.0000 <s> SIRI 0.0000
-2.0000 <s> STOP 0.0000
-1.3979 <s> TELL 0.0000
-2.0000 <s> TOILET 0.0000
-2.0000 <s> TURN 0.0000
-2.0000 <s> VOLUMN 0.0000
-2.0000 <s> WHAT 0.0000
-2.0000 <s> YOUR -0.1249
-1.0000 A FACT 0.0000
-1.0000 A JOKE 0.0000
-1.0000 A QUESTION 0.0000
-1.0000 A RANDOM 0.0000
-1.0000 A STUPID 0.0000
-0.3010 ALEXA </s> -0.3010
-0.3010 ASK ME -0.1549
-0.3010 BEDROOM </s> -0.3010
-0.3010 BETWEEN </s> -0.3010
-0.3010 BLUE PURPLE 0.0000
-0.3010 BOCHUM </s> -0.3010
-0.3010 BRABENDER </s> -0.3010
-0.3010 BRIGHTNESS TEMPERATURE 0.0000
-0.3010 CHANGE YOUR -0.1249
-0.3010 COLOGNE </s> -0.3010
-0.3010 CORTANA </s> -0.3010
-0.3010 DISTANCE BETWEEN 0.0000
-0.3010 DORTMUND </s> -0.3010
-0.3010 ESSEN </s> -0.3010
-0.3010 FACT </s> -0.3010
-0.3010 FACTS </s> -0.3010
-0.3010 FAR FROM 0.0000
-0.3010 FAVORITE POKEMON 0.0000
-0.3010 FRIDAY </s> -0.3010
-0.3010 FROM </s> -0.3010
-0.3010 GIVE ME -0.1091
-0.3010 GOOD MORNING 0.0000
-0.3010 GREEN RED 0.0000
-0.3010 GREETINGS </s> -0.3010
-0.3010 HELLO MY 0.0000
-0.6021 HOW FAR 0.0000
-0.6021 HOW IS -0.2430
-0.3010 IN </s> -0.3010
-0.9031 IS NOW 0.0000
-0.9031 IS SADOKE. 0.0000
-0.9031 IS THE -0.1761
-0.9031 IS YOUR -0.2218
-0.3010 JARVIS </s> -0.3010
-0.3010 JOKE </s> -0.3010
-0.3010 JULIA </s> -0.3010
-0.3010 KEVIN </s> -0.3010
-0.3010 KITCHEN </s> -0.3010
-0.3010 KOCH </s> -0.3010
-0.3010 LAMP GREEN 0.0000
-0.3010 LIGHTBLUE </s> -0.3010
-0.3010 LIVINGROOM </s> -0.3010
-0.3010 LONDON </s> -0.3010
-0.5441 ME A -0.0792
-1.1461 ME SOME 0.0000
-1.1461 ME SOMETHING 0.0000
-1.1461 ME THE -0.1761
-0.3010 MORNING </s> -0.3010
-0.3010 MY NAME -0.1249
-0.4771 NAME IS -0.1761
-0.7782 NAME TO 0.0000
-0.3010 NOW </s> -0.3010
-0.3010 OFF ON 0.0000
-0.3010 ON WHITE 0.0000
-0.3010 PETER </s> -0.3010
-0.3010 PLAY SONG 0.0000
-0.3010 POKEMON </s> -0.3010
-0.3010 PURPLE OFF 0.0000
-0.3010 QUESTION </s> -0.3010
-0.3010 QUOTE A -0.2553
-0.3010 RANDOM FACT 0.0000
-0.3010 RED BLUE 0.0000
-0.3010 RENAME YOURSELF 0.0000
-0.3010 RESUME SONG 0.0000
-0.3010 SADOKE. </s> -0.3010
-0.3010 SIRI </s> -0.3010
-0.3010 SOME FACTS 0.0000
-0.3010 SOMETHING </s> -0.3010
-0.3010 SONG </s> -0.3010
-0.3010 STOP SONG 0.0000
-0.3010 STUPID </s> -0.3010
-0.3010 TELL ME -0.0580
-0.3010 TEMPERATURE LIGHTBLUE 0.0000
-0.6021 THE DISTANCE 0.0000
-0.6021 THE WEATHER 0.0000
-0.3010 TO </s> -0.3010
-0.3010 TOILET </s> -0.3010
-0.3010 TURN LAMP 0.0000
-0.3010 VOLUMN </s> -0.3010
-0.3010 WEATHER IN 0.0000
-0.3010 WHAT IS -0.2430
-0.3010 WHITE BRIGHTNESS 0.0000
-0.7782 YOUR FAVORITE 0.0000
-0.4771 YOUR NAME 0.0000
-0.3010 YOURSELF TO 0.0000

\3-grams:
-0.3010 1 2 3
-0.3010 10 11 12
-0.3010 11 12 13
-0.3010 12 13 14
-0.3010 13 14 15
-0.3010 14 15 </s>
-0.3010 16 17 18
-0.3010 17 18 19
-0.3010 18 19 20
-0.3010 19 20 21
-0.3010 2 3 4
-0.3010 20 21 22
-0.3010 21 22 23
-0.3010 22 23 24
-0.3010 23 24 25
-0.3010 24 25 26
-0.3010 25 26 27
-0.3010 26 27 </s>
-0.3010 28 29 30
-0.3010 29 30 31
-0.3010 3 4 5
-0.3010 30 31 32
-0.3010 31 32 33
-0.3010 32 33 34
-0.3010 33 34 35
-0.3010 34 35 36
-0.3010 35 36 37
-0.3010 36 37 38
-0.3010 37 38 39
-0.3010 38 39 </s>
-0.3010 4 5 6
-0.3010 40 41 42
-0.3010 41 42 43
-0.3010 42 43 44
-0.3010 43 44 45
-0.3010 44 45 46
-0.3010 45 46 47
-0.3010 46 47 48
-0.3010 47 48 49
-0.3010 48 49 50
-0.3010 49 50 51
-0.3010 5 6 7
-0.3010 50 51 </s>
-0.3010 52 53 54
-0.3010 53 54 55
-0.3010 54 55 56
-0.3010 55 56 57
-0.3010 56 57 58
-0.3010 57 58 59
-0.3010 58 59 60
-0.3010 59 60 61
-0.3010 6 7 8
-0.3010 60 61 62
-0.3010 61 62 63
-0.3010 62 63 </s>
-0.3010 64 65 66
-0.3010 65 66 67
-0.3010 66 67 68
-0.3010 67 68 69
-0.3010 68 69 70
-0.3010 69 70 71
-0.3010 7 8 9
-0.3010 70 71 72
-0.3010 71 72 73
-0.3010 72 73 74
-0.3010 73 74 75
-0.3010 74 75 </s>
-0.3010 76 77 78
-0.3010 77 78 79
-0.3010 78 79 80
-0.3010 79 80 81
-0.3010 8 9 10
-0.3010 80 81 82
-0.3010 81 82 83
-0.3010 82 83 84
-0.3010 83 84 85
-0.3010 84 85 86
-0.3010 85 86 87
-0.3010 86 87 </s>
-0.3010 88 89 90
-0.3010 89 90 91
-0.3010 9 10 11
-0.3010 90 91 92
-0.3010 91 92 93
-0.3010 92 93 94
-0.3010 93 94 95
-0.3010 94 95 96
-0.3010 95 96 97
-0.3010 96 97 98
-0.3010 97 98 99
-0.3010 98 99 </s>
-0.3010 <s> 1 2
-0.3010 <s> 100 </s>
-0.3010 <s> 16 17
-0.3010 <s> 28 29
-0.3010 <s> 40 41
-0.3010 <s> 52 53
-0.3010 <s> 64 65
-0.3010 <s> 76 77
-0.3010 <s> 88 89
-0.3010 <s> ALEXA </s>
-0.3010 <s> ASK ME
-0.3010 <s> BEDROOM </s>
-0.3010 <s> BOCHUM </s>
-0.3010 <s> BRABENDER </s>
-0.3010 <s> CHANGE YOUR
-0.3010 <s> COLOGNE </s>
-0.3010 <s> CORTANA </s>
-0.3010 <s> DORTMUND </s>
-0.3010 <s> ESSEN </s>
-0.3010 <s> FRIDAY </s>
-0.3010 <s> GIVE ME
-0.3010 <s> GOOD MORNING
-0.3010 <s> GREETINGS </s>
-0.3010 <s> HELLO MY
-0.6021 <s> HOW FAR
-0.6021 <s> HOW IS
-0.3010 <s> JARVIS </s>
-0.3010 <s> JULIA </s>
-0.3010 <s> KEVIN </s>
-0.3010 <s> KITCHEN </s>
-0.3010 <s> KOCH </s>
-0.3010 <s> LIVINGROOM </s>
-0.3010 <s> LONDON </s>
-0.3010 <s> PETER </s>
-0.3010 <s> PLAY SONG
-0.3010 <s> QUOTE A
-0.3010 <s> RENAME YOURSELF
-0.3010 <s> RESUME SONG
-0.3010 <s> SIRI </s>
-0.3010 <s> STOP SONG
-0.3010 <s> TELL ME
-0.3010 <s> TOILET </s>
-0.3010 <s> TURN LAMP
-0.3010 <s> VOLUMN </s>
-0.3010 <s> WHAT IS
-0.3010 <s> YOUR NAME
-0.3010 A FACT </s>
-0.3010 A JOKE </s>
-0.3010 A QUESTION </s>
-0.3010 A RANDOM FACT
-0.3010 A STUPID </s>
-0.3010 ASK ME A
-0.3010 BLUE PURPLE OFF
-0.3010 BRIGHTNESS TEMPERATURE LIGHTBLUE
-0.3010 CHANGE YOUR NAME
-0.3010 DISTANCE BETWEEN </s>
-0.3010 FAR FROM </s>
-0.3010 FAVORITE POKEMON </s>
-0.6021 GIVE ME A
-0.6021 GIVE ME SOME
-0.3010 GOOD MORNING </s>
-0.3010 GREEN RED BLUE
-0.3010 HELLO MY NAME
-0.3010 HOW FAR FROM
-0.3010 HOW IS THE
-0.3010 IS NOW </s>
-0.3010 IS SADOKE. </s>
-0.3010 IS THE WEATHER
-0.3010 IS YOUR FAVORITE
-0.3010 LAMP GREEN RED
-0.9031 ME A FACT
-0.9031 ME A JOKE
-0.9031 ME A QUESTION
-0.9031 ME A RANDOM
-0.3010 ME SOME FACTS
-0.3010 ME SOMETHING </s>
-0.3010 ME THE DISTANCE
-0.3010 MY NAME IS
-0.6021 NAME IS NOW
-0.6021 NAME IS SADOKE.
-0.3010 NAME TO </s>
-0.3010 OFF ON WHITE
-0.3010 ON WHITE BRIGHTNESS
-0.3010 PLAY SONG </s>
-0.3010 PURPLE OFF ON
-0.3010 QUOTE A STUPID
-0.3010 RANDOM FACT </s>
-0.3010 RED BLUE PURPLE
-0.3010 RENAME YOURSELF TO
-0.3010 RESUME SONG </s>
-0.3010 SOME FACTS </s>
-0.3010 STOP SONG </s>
-0.6021 TELL ME A
-0.9031 TELL ME SOMETHING
-0.9031 TELL ME THE
-0.3010 TEMPERATURE LIGHTBLUE </s>
-0.3010 THE DISTANCE BETWEEN
-0.3010 THE WEATHER IN
-0.3010 TURN LAMP GREEN
-0.3010 WEATHER IN </s>
-0.3010 WHAT IS YOUR
-0.3010 WHITE BRIGHTNESS TEMPERATURE
-0.3010 YOUR FAVORITE POKEMON
-0.6021 YOUR NAME IS
-0.6021 YOUR NAME TO
-0.3010 YOURSELF TO </s>

\end\
