Language model created by QuickLM on Sat Jan 18 05:30:02 EST 2020
Copyright (c) 1996-2010 Carnegie Mellon University and Alexander I. Rudnicky

The model is in standard ARPA format, designed by Doug Paul while he was at MITRE.

The code that was used to produce this language model is available in Open Source.
Please visit http://www.speech.cs.cmu.edu/tools/ for more information

The (fixed) discount mass is 0.5. The backoffs are computed using the ratio method.
This model based on a corpus of 33 sentences and 155 words

\data\
ngram 1=155
ngram 2=193
ngram 3=166

\1-grams:
-2.6721 1 -0.3001
-2.6721 10 -0.3001
-2.6721 100 -0.2694
-2.6721 11 -0.3001
-2.6721 12 -0.3001
-2.6721 13 -0.3001
-2.6721 14 -0.3001
-2.6721 15 -0.2694
-2.6721 16 -0.3001
-2.6721 17 -0.3001
-2.6721 18 -0.3001
-2.6721 19 -0.3001
-2.6721 2 -0.3001
-2.6721 20 -0.3001
-2.6721 21 -0.3001
-2.6721 22 -0.3001
-2.6721 23 -0.3001
-2.6721 24 -0.3001
-2.6721 25 -0.3001
-2.6721 26 -0.3001
-2.6721 27 -0.2694
-2.6721 28 -0.3001
-2.6721 29 -0.3001
-2.6721 3 -0.3001
-2.6721 30 -0.3001
-2.6721 31 -0.3001
-2.6721 32 -0.3001
-2.6721 33 -0.3001
-2.6721 34 -0.3001
-2.6721 35 -0.3001
-2.6721 36 -0.3001
-2.6721 37 -0.3001
-2.6721 38 -0.3001
-2.6721 39 -0.2694
-2.6721 4 -0.3001
-2.6721 40 -0.3001
-2.6721 41 -0.3001
-2.6721 42 -0.3001
-2.6721 43 -0.3001
-2.6721 44 -0.3001
-2.6721 45 -0.3001
-2.6721 46 -0.3001
-2.6721 47 -0.3001
-2.6721 48 -0.3001
-2.6721 49 -0.3001
-2.6721 5 -0.3001
-2.6721 50 -0.3001
-2.6721 51 -0.2694
-2.6721 52 -0.3001
-2.6721 53 -0.3001
-2.6721 54 -0.3001
-2.6721 55 -0.3001
-2.6721 56 -0.3001
-2.6721 57 -0.3001
-2.6721 58 -0.3001
-2.6721 59 -0.3001
-2.6721 6 -0.3001
-2.6721 60 -0.3001
-2.6721 61 -0.3001
-2.6721 62 -0.3001
-2.6721 63 -0.2694
-2.6721 64 -0.3001
-2.6721 65 -0.3001
-2.6721 66 -0.3001
-2.6721 67 -0.3001
-2.6721 68 -0.3001
-2.6721 69 -0.3001
-2.6721 7 -0.3001
-2.6721 70 -0.3001
-2.6721 71 -0.3001
-2.6721 72 -0.3001
-2.6721 73 -0.3001
-2.6721 74 -0.3001
-2.6721 75 -0.2694
-2.6721 76 -0.3001
-2.6721 77 -0.3001
-2.6721 78 -0.3001
-2.6721 79 -0.3001
-2.6721 8 -0.3001
-2.6721 80 -0.3001
-2.6721 81 -0.3001
-2.6721 82 -0.3001
-2.6721 83 -0.3001
-2.6721 84 -0.3001
-2.6721 85 -0.3001
-2.6721 86 -0.3001
-2.6721 87 -0.2694
-2.6721 88 -0.3001
-2.6721 89 -0.3001
-2.6721 9 -0.3001
-2.6721 90 -0.3001
-2.6721 91 -0.3001
-2.6721 92 -0.3001
-2.6721 93 -0.3001
-2.6721 94 -0.3001
-2.6721 95 -0.3001
-2.6721 96 -0.3001
-2.6721 97 -0.3001
-2.6721 98 -0.3001
-2.6721 99 -0.2694
-1.1536 </s> -0.3010
-1.1536 <s> -0.2674
-2.1950 A -0.2982
-2.6721 ASK -0.2964
-2.6721 BEDROOM -0.2694
-2.6721 BLUE -0.3001
-2.6721 BRIGHTNESS -0.3001
-2.6721 CHANGE -0.2992
-2.6721 COLOGNE -0.2694
-2.6721 DORTMUND -0.2694
-2.6721 EXPLAIN -0.2992
-2.6721 FACT -0.2694
-2.6721 FACTS -0.2694
-2.6721 GIVE -0.2964
-2.6721 GREEN -0.3001
-2.6721 GREET -0.3001
-2.6721 GREETINGS -0.2694
-2.6721 GUESTS -0.2694
-2.6721 HELLO -0.3001
-2.6721 HOW -0.2982
-2.6721 IN -0.2694
-2.1950 IS -0.2973
-2.6721 JARVIS -0.2694
-2.6721 JOKE -0.2694
-2.6721 KITCHEN -0.2694
-2.6721 LAMP -0.3001
-2.6721 LIGHTBLUE -0.2694
-2.6721 LIVINGROOM -0.2694
-2.6721 LONDON -0.2694
-1.9731 ME -0.2964
-2.6721 MY -0.2982
-2.1950 NAME -0.2964
-2.6721 NEWS -0.2694
-2.6721 NOW -0.2694
-2.6721 OFF -0.3001
-2.6721 ON -0.3001
-2.6721 OUR -0.3001
-2.6721 PETER -0.2694
-2.6721 PURPLE -0.3001
-2.6721 QUESTION -0.2694
-2.6721 RED -0.3001
-2.6721 RENAME -0.2992
-2.6721 SADOKE -0.2694
-2.6721 SOME -0.3001
-2.1950 TELL -0.2964
-2.6721 TEMPERATURE -0.3001
-2.3711 THE -0.2992
-2.6721 TIME -0.2694
-2.3711 TO -0.2694
-2.6721 TOILET -0.2694
-2.6721 TURN -0.3001
-2.6721 WEATHER -0.3001
-2.6721 WHITE -0.3001
-2.3711 YOUR -0.2982
-2.3711 YOURSELF -0.2674

\2-grams:
-0.3010 1 2 0.0000
-0.3010 10 11 0.0000
-0.3010 100 </s> -0.3010
-0.3010 11 12 0.0000
-0.3010 12 13 0.0000
-0.3010 13 14 0.0000
-0.3010 14 15 0.0000
-0.3010 15 </s> -0.3010
-0.3010 16 17 0.0000
-0.3010 17 18 0.0000
-0.3010 18 19 0.0000
-0.3010 19 20 0.0000
-0.3010 2 3 0.0000
-0.3010 20 21 0.0000
-0.3010 21 22 0.0000
-0.3010 22 23 0.0000
-0.3010 23 24 0.0000
-0.3010 24 25 0.0000
-0.3010 25 26 0.0000
-0.3010 26 27 0.0000
-0.3010 27 </s> -0.3010
-0.3010 28 29 0.0000
-0.3010 29 30 0.0000
-0.3010 3 4 0.0000
-0.3010 30 31 0.0000
-0.3010 31 32 0.0000
-0.3010 32 33 0.0000
-0.3010 33 34 0.0000
-0.3010 34 35 0.0000
-0.3010 35 36 0.0000
-0.3010 36 37 0.0000
-0.3010 37 38 0.0000
-0.3010 38 39 0.0000
-0.3010 39 </s> -0.3010
-0.3010 4 5 0.0000
-0.3010 40 41 0.0000
-0.3010 41 42 0.0000
-0.3010 42 43 0.0000
-0.3010 43 44 0.0000
-0.3010 44 45 0.0000
-0.3010 45 46 0.0000
-0.3010 46 47 0.0000
-0.3010 47 48 0.0000
-0.3010 48 49 0.0000
-0.3010 49 50 0.0000
-0.3010 5 6 0.0000
-0.3010 50 51 0.0000
-0.3010 51 </s> -0.3010
-0.3010 52 53 0.0000
-0.3010 53 54 0.0000
-0.3010 54 55 0.0000
-0.3010 55 56 0.0000
-0.3010 56 57 0.0000
-0.3010 57 58 0.0000
-0.3010 58 59 0.0000
-0.3010 59 60 0.0000
-0.3010 6 7 0.0000
-0.3010 60 61 0.0000
-0.3010 61 62 0.0000
-0.3010 62 63 0.0000
-0.3010 63 </s> -0.3010
-0.3010 64 65 0.0000
-0.3010 65 66 0.0000
-0.3010 66 67 0.0000
-0.3010 67 68 0.0000
-0.3010 68 69 0.0000
-0.3010 69 70 0.0000
-0.3010 7 8 0.0000
-0.3010 70 71 0.0000
-0.3010 71 72 0.0000
-0.3010 72 73 0.0000
-0.3010 73 74 0.0000
-0.3010 74 75 0.0000
-0.3010 75 </s> -0.3010
-0.3010 76 77 0.0000
-0.3010 77 78 0.0000
-0.3010 78 79 0.0000
-0.3010 79 80 0.0000
-0.3010 8 9 0.0000
-0.3010 80 81 0.0000
-0.3010 81 82 0.0000
-0.3010 82 83 0.0000
-0.3010 83 84 0.0000
-0.3010 84 85 0.0000
-0.3010 85 86 0.0000
-0.3010 86 87 0.0000
-0.3010 87 </s> -0.3010
-0.3010 88 89 0.0000
-0.3010 89 90 0.0000
-0.3010 9 10 0.0000
-0.3010 90 91 0.0000
-0.3010 91 92 0.0000
-0.3010 92 93 0.0000
-0.3010 93 94 0.0000
-0.3010 94 95 0.0000
-0.3010 95 96 0.0000
-0.3010 96 97 0.0000
-0.3010 97 98 0.0000
-0.3010 98 99 0.0000
-0.3010 99 </s> -0.3010
-1.8195 <s> 1 0.0000
-1.8195 <s> 100 0.0000
-1.8195 <s> 16 0.0000
-1.8195 <s> 28 0.0000
-1.8195 <s> 40 0.0000
-1.8195 <s> 52 0.0000
-1.8195 <s> 64 0.0000
-1.8195 <s> 76 0.0000
-1.8195 <s> 88 0.0000
-1.8195 <s> ASK 0.0000
-1.8195 <s> BEDROOM 0.0000
-1.8195 <s> CHANGE 0.0000
-1.8195 <s> COLOGNE 0.0000
-1.8195 <s> DORTMUND 0.0000
-1.8195 <s> EXPLAIN 0.0000
-1.8195 <s> GIVE 0.0000
-1.8195 <s> GREET 0.0000
-1.8195 <s> GREETINGS 0.0000
-1.8195 <s> HELLO 0.0000
-1.8195 <s> HOW 0.0000
-1.8195 <s> JARVIS 0.0000
-1.8195 <s> KITCHEN 0.0000
-1.8195 <s> LIVINGROOM 0.0000
-1.8195 <s> LONDON 0.0000
-1.8195 <s> PETER 0.0000
-1.8195 <s> RENAME 0.0000
-1.3424 <s> TELL 0.0000
-1.8195 <s> THE -0.1761
-1.8195 <s> TOILET 0.0000
-1.8195 <s> TURN 0.0000
-1.8195 <s> YOUR 0.0000
-0.7782 A FACT 0.0000
-0.7782 A JOKE 0.0000
-0.7782 A QUESTION 0.0000
-0.3010 ASK ME -0.1461
-0.3010 BEDROOM </s> -0.3010
-0.3010 BLUE PURPLE 0.0000
-0.3010 BRIGHTNESS TEMPERATURE 0.0000
-0.3010 CHANGE YOUR 0.0000
-0.3010 COLOGNE </s> -0.3010
-0.3010 DORTMUND </s> -0.3010
-0.3010 EXPLAIN YOURSELF -0.1761
-0.3010 FACT </s> -0.3010
-0.3010 FACTS </s> -0.3010
-0.3010 GIVE ME -0.2553
-0.3010 GREEN RED 0.0000
-0.3010 GREET OUR 0.0000
-0.3010 GREETINGS </s> -0.3010
-0.3010 GUESTS </s> -0.3010
-0.3010 HELLO MY 0.0000
-0.3010 HOW IS -0.2218
-0.3010 IN </s> -0.3010
-0.7782 IS NOW 0.0000
-0.7782 IS SADOKE 0.0000
-0.7782 IS THE -0.1761
-0.3010 JARVIS </s> -0.3010
-0.3010 JOKE </s> -0.3010
-0.3010 KITCHEN </s> -0.3010
-0.3010 LAMP GREEN 0.0000
-0.3010 LIGHTBLUE </s> -0.3010
-0.3010 LIVINGROOM </s> -0.3010
-0.3010 LONDON </s> -0.3010
-0.5229 ME A 0.0000
-1.0000 ME NEWS 0.0000
-1.0000 ME SOME 0.0000
-0.3010 MY NAME -0.1249
-0.4771 NAME IS -0.1249
-0.7782 NAME TO 0.0000
-0.3010 NEWS </s> -0.3010
-0.3010 NOW </s> -0.3010
-0.3010 OFF ON 0.0000
-0.3010 ON WHITE 0.0000
-0.3010 OUR GUESTS 0.0000
-0.3010 PETER </s> -0.3010
-0.3010 PURPLE OFF 0.0000
-0.3010 QUESTION </s> -0.3010
-0.3010 RED BLUE 0.0000
-0.3010 RENAME YOURSELF -0.1761
-0.3010 SADOKE </s> -0.3010
-0.3010 SOME FACTS 0.0000
-0.3010 TELL ME -0.0792
-0.3010 TEMPERATURE LIGHTBLUE 0.0000
-0.6021 THE TIME 0.0000
-0.6021 THE WEATHER 0.0000
-0.3010 TIME </s> -0.3010
-0.3010 TO </s> -0.3010
-0.3010 TOILET </s> -0.3010
-0.3010 TURN LAMP 0.0000
-0.3010 WEATHER IN 0.0000
-0.3010 WHITE BRIGHTNESS 0.0000
-0.3010 YOUR NAME 0.0000
-0.6021 YOURSELF </s> -0.3010
-0.6021 YOURSELF TO 0.0000

\3-grams:
-0.3010 1 2 3
-0.3010 10 11 12
-0.3010 11 12 13
-0.3010 12 13 14
-0.3010 13 14 15
-0.3010 14 15 </s>
-0.3010 16 17 18
-0.3010 17 18 19
-0.3010 18 19 20
-0.3010 19 20 21
-0.3010 2 3 4
-0.3010 20 21 22
-0.3010 21 22 23
-0.3010 22 23 24
-0.3010 23 24 25
-0.3010 24 25 26
-0.3010 25 26 27
-0.3010 26 27 </s>
-0.3010 28 29 30
-0.3010 29 30 31
-0.3010 3 4 5
-0.3010 30 31 32
-0.3010 31 32 33
-0.3010 32 33 34
-0.3010 33 34 35
-0.3010 34 35 36
-0.3010 35 36 37
-0.3010 36 37 38
-0.3010 37 38 39
-0.3010 38 39 </s>
-0.3010 4 5 6
-0.3010 40 41 42
-0.3010 41 42 43
-0.3010 42 43 44
-0.3010 43 44 45
-0.3010 44 45 46
-0.3010 45 46 47
-0.3010 46 47 48
-0.3010 47 48 49
-0.3010 48 49 50
-0.3010 49 50 51
-0.3010 5 6 7
-0.3010 50 51 </s>
-0.3010 52 53 54
-0.3010 53 54 55
-0.3010 54 55 56
-0.3010 55 56 57
-0.3010 56 57 58
-0.3010 57 58 59
-0.3010 58 59 60
-0.3010 59 60 61
-0.3010 6 7 8
-0.3010 60 61 62
-0.3010 61 62 63
-0.3010 62 63 </s>
-0.3010 64 65 66
-0.3010 65 66 67
-0.3010 66 67 68
-0.3010 67 68 69
-0.3010 68 69 70
-0.3010 69 70 71
-0.3010 7 8 9
-0.3010 70 71 72
-0.3010 71 72 73
-0.3010 72 73 74
-0.3010 73 74 75
-0.3010 74 75 </s>
-0.3010 76 77 78
-0.3010 77 78 79
-0.3010 78 79 80
-0.3010 79 80 81
-0.3010 8 9 10
-0.3010 80 81 82
-0.3010 81 82 83
-0.3010 82 83 84
-0.3010 83 84 85
-0.3010 84 85 86
-0.3010 85 86 87
-0.3010 86 87 </s>
-0.3010 88 89 90
-0.3010 89 90 91
-0.3010 9 10 11
-0.3010 90 91 92
-0.3010 91 92 93
-0.3010 92 93 94
-0.3010 93 94 95
-0.3010 94 95 96
-0.3010 95 96 97
-0.3010 96 97 98
-0.3010 97 98 99
-0.3010 98 99 </s>
-0.3010 <s> 1 2
-0.3010 <s> 100 </s>
-0.3010 <s> 16 17
-0.3010 <s> 28 29
-0.3010 <s> 40 41
-0.3010 <s> 52 53
-0.3010 <s> 64 65
-0.3010 <s> 76 77
-0.3010 <s> 88 89
-0.3010 <s> ASK ME
-0.3010 <s> BEDROOM </s>
-0.3010 <s> CHANGE YOUR
-0.3010 <s> COLOGNE </s>
-0.3010 <s> DORTMUND </s>
-0.3010 <s> EXPLAIN YOURSELF
-0.3010 <s> GIVE ME
-0.3010 <s> GREET OUR
-0.3010 <s> GREETINGS </s>
-0.3010 <s> HELLO MY
-0.3010 <s> HOW IS
-0.3010 <s> JARVIS </s>
-0.3010 <s> KITCHEN </s>
-0.3010 <s> LIVINGROOM </s>
-0.3010 <s> LONDON </s>
-0.3010 <s> PETER </s>
-0.3010 <s> RENAME YOURSELF
-0.3010 <s> TELL ME
-0.3010 <s> THE TIME
-0.3010 <s> TOILET </s>
-0.3010 <s> TURN LAMP
-0.3010 <s> YOUR NAME
-0.3010 A FACT </s>
-0.3010 A JOKE </s>
-0.3010 A QUESTION </s>
-0.3010 ASK ME A
-0.3010 BLUE PURPLE OFF
-0.3010 BRIGHTNESS TEMPERATURE LIGHTBLUE
-0.3010 CHANGE YOUR NAME
-0.3010 EXPLAIN YOURSELF </s>
-0.3010 GIVE ME SOME
-0.3010 GREEN RED BLUE
-0.3010 GREET OUR GUESTS
-0.3010 HELLO MY NAME
-0.3010 HOW IS THE
-0.3010 IS NOW </s>
-0.3010 IS SADOKE </s>
-0.3010 IS THE WEATHER
-0.3010 LAMP GREEN RED
-0.7782 ME A FACT
-0.7782 ME A JOKE
-0.7782 ME A QUESTION
-0.3010 ME NEWS </s>
-0.3010 ME SOME FACTS
-0.3010 MY NAME IS
-0.6021 NAME IS NOW
-0.6021 NAME IS SADOKE
-0.3010 NAME TO </s>
-0.3010 OFF ON WHITE
-0.3010 ON WHITE BRIGHTNESS
-0.3010 OUR GUESTS </s>
-0.3010 PURPLE OFF ON
-0.3010 RED BLUE PURPLE
-0.3010 RENAME YOURSELF TO
-0.3010 SOME FACTS </s>
-0.4771 TELL ME A
-0.7782 TELL ME NEWS
-0.3010 TEMPERATURE LIGHTBLUE </s>
-0.3010 THE TIME </s>
-0.3010 THE WEATHER IN
-0.3010 TURN LAMP GREEN
-0.3010 WEATHER IN </s>
-0.3010 WHITE BRIGHTNESS TEMPERATURE
-0.6021 YOUR NAME IS
-0.6021 YOUR NAME TO
-0.3010 YOURSELF TO </s>

\end\